{
    "config": {
        "layerActivations": [
            "ReLU",
            "Softmax"
        ],
        "layerSizes": [
            784,
            128,
            10
        ]
    },
    "format": "DigitClassifierModel",
    "layers": [
        {
            "biases": [
                0.020620536896856334,
                0.02274323226074234,
                -0.048260797901930316,
                0.008552663417957925,
                0.04746798415839008,
                -0.018841943067232407,
                -0.027926747672839463,
                0.05564403878609864,
                0.011297128966740204,
                0.037320351360113864,
                0.021238643837495786,
                0.0029124536741467564,
                -0.017427542815408648,
                -0.004624037669312811,
                0.05632879317642893,
                -0.039055206941077,
                0.0032687763872770795,
                -0.01859084573388526,
                -0.0063266997865802765,
                -0.00952905747534765,
                -0.007942562236627638,
                -0.017227052649493865,
                -0.0036368980683843476,
                0.02337303862898058,
                0.07366909109579634,
                -0.010642166018111436,
                0.025467156276976672,
                -0.007367690358528457,
                0.04363475002912369,
                0.020486818798235072,
                -0.011829874670042106,
                -0.015500737273492797,
                0.030330683994467186,
                0.031601084989362226,
                -0.0028247800073395407,
                -0.051157608255607195,
                0.040404236466699286,
                -0.03735373712232509,
                0.028999568465625115,
                0.006140330733964594,
                -0.009660967704449876,
                0.028289022278639837,
                0.03787304446541799,
                0.00812632773741612,
                -0.02286585900827127,
                0.023626598409239676,
                0.05677368684106629,
                0.029141770858000127,
                0.010356412056306576,
                0.0331029822329546,
                0.048346631299704665,
                0.053179472633882396,
                -0.005238173055593439,
                -0.0414717309765951,
                -0.021245467112035253,
                -0.023073231125100957,
                0.023283419223414942,
                5.325137844589789e-05,
                0.030625090411782352,
                0.0021432290460657393,
                0.06261774831891828,
                -0.017779157469318636,
                -0.0190338634991799,
                0.015091123527382799,
                -0.005846040685232985,
                0.018177205159930022,
                0.015868048894381908,
                0.03814580083973483,
                0.07212523414787007,
                0.045015864124261055,
                0.062427173896938554,
                0.04125835564434455,
                -0.004434484294389349,
                0.029284203734417907,
                -0.004503308214461351,
                -0.0034022072750652253,
                0.03319291993168378,
                0.00416451232356365,
                -0.012114632383079742,
                -0.0222060107621697,
                -0.006401359436680739,
                0.028696490001669503,
                0.0028721324171002483,
                -0.015158315104745527,
                -0.018320940762113977,
                0.0012090444994685562,
                0.016694275381290362,
                -0.009937776463234254,
                0.005187550637392494,
                -0.02976594394587029,
                0.0062031896909431694,
                -0.00011608706506684423,
                0.06369163380117693,
                -0.012079885773626974,
                0.006616048465586743,
                0.049004499822713384,
                -0.023466784413680043,
                0.002046050830610136,
                0.008022561070277852,
                -0.012711856644841117,
                0.01406825799508006,
                0.040685044008356284,
                0.013131262275039485,
                0.026358514556056138,
                0.05536862768132278,
                0.04562488301923472,
                0.04566287404105163,
                0.05034730570809922,
                -0.008023504418572983,
                0.008070544270467977,
                -0.011644457906874777,
                -0.017666275060434812,
                -0.016705823656562906,
                0.06418082783557853,
                -0.03237756228287496,
                0.015899768736374654,
                -0.08260038009525089,
                0.028854577315933497,
                0.005612524616835559,
                0.013762059969525177,
                0.018966033506428847,
                0.07936437930800166,
                0.00751022809079414,
                0.01678205676245688,
                -0.020034242317348218,
                -0.007524774328546794,
                0.042167671986886146,
                0.005521801526488531
            ],
            "index": 0,
            "weights": [
                -0.009153394099028761,
                0.036194749770614175,
                0.09609169452615486,
                -0.024387991330583607,
                -0.06271137309965387,
                0.039364697150539196,
                0.019931756620188142,
                0.09150462446329673,
                0.008638374696630775,
                0.024365330324142582,
                0.012821498664117198,
                0.04484968738868767,
                -0.004054253006453375,
                -0.03169645616660491,
                0.04703943216594887,
                0.029070604408372135,
                -0.12122331771884277,
                0.05881351012347491,
                0.05053222693585222,
                0.01521712480011203,
                -0.1005885368229068,
                0.08959714264691872,
                0.10829693514782364,
                0.0428759051345619,
                -0.03453753691257887,
                0.01790932582099012,
                0.07424627862354091,
                0.004603315524033249,
                -0.09064428832105131,
                0.06573667983774024,
                0.021759160689969845,
                0.06759654837295238,
                -0.07743034835329014,
                0.05769287808921391,
                -0.10861471249819321,
                -0.03170154818154357,
                -5.206645841375986e-05,
                0.005443528275586934,
                -0.12582731238894598,
                -0.037659977985974445,
                0.0059386856053499455,
                -0.013956845130018929,
                0.07785423426479296,
                0.047271497776407094,
                -0.0002466871874349082,
                -0.004310089867786463,
                0.019740696723498014,
                -0.008805487541541665,
                0.012862224019336201,
                -0.022749038118802235,
                -0.03539161451373635,
                0.035266159007572684,
                0.06696682113321592,
                -0.042279025424999395,
                -0.04747923449970745,
                -0.02220348819845614,
                0.08716379617465432,
                -0.0007136702988677903,
                -0.11089796448661163,
                0.017978906849032493,
                -0.0037191349405609002,
                0.05474718418989716,
                0.0424162081193248,
                -0.02465672887782206,
                0.0013619370629371836,
                -0.04285150755482254,
                0.04710172318924374,
                -0.018504358355156004,
                0.06802517833009918,
                -0.03581072448036139,
                -0.056531274938304156,
                0.027887255464736704,
                -0.011026505593398675,
                -0.08536445701956755,
                -0.027655929221202045,
                0.04704924399661099,
                -0.08486692747197512,
                0.040790460875321115,
                -0.05204767184627926,
                0.02354829657514122,
                -0.0003029249055391099,
                -0.025671193887948553,
                0.008580145265106682,
                0.009312839093589221,
                -0.010449849811505124,
                -0.09692042732019018,
                0.049113859655800916,
                0.07410601059717,
                -0.05941322362896022,
                0.05453562395386975,
                -0.02253926930281775,
                0.0601462911442847,
                0.015724370366651128,
                -0.004424736981833446,
                -0.02872545435699129,
                0.017305440811872092,
                0.08138773017059928,
                0.1500945120942765,
                -0.010997614782929934,
                -0.01965528061890794,
                -0.04158250435480996,
                0.1309386102953478,
                0.01189417441080502,
                0.06838645779585653,
                -0.036913500213432295,
                0.10440101753913639,
                -0.01936354651813517,
                -0.05255156931487123,
                0.037815155141215084,
                0.00661636271951701,
                -0.04200167002153038,
                0.014011167869725644,
                0.04946715633488146,
                0.06900538801156125,
                -0.048399337859524286,
                0.013368048663981391,
                -0.03197250074319184,
                0.04758659363556819,
                -0.009759642307495682,
                -0.09914894373611759,
                -0.05767215109830251,
                -0.011860674253325432,
                0.024448387158517902,
                -0.05036285427550872,
                -0.03788587255495683,
                0.02940887809094228,
                -0.009037165018632795,
                0.1312115751509557,
                0.07520157308834621,
                0.0061152267340618014,
                -0.019784237044047494,
                -0.055212818932888166,
                0.06344283421941038,
                0.04903681514831165,
                0.00017954776658295923,
                -0.023711400521595042,
                -0.03500604361557759,
                -0.025565223583919335,
                -0.10311087675665541,
                -0.006620073074592411,
                0.02766555350930193,
                -0.04415796428853302,
                -0.03131631392246389,
                0.07027393574546531,
                -0.05882406067502538,
                -0.002130565778836553,
                0.01572724861429505,
                -0.099424392213259,
                0.01064695423162868,
                0.02541513842371686,
                0.022078604672872742,
                0.03340134600483038,
                -0.07059806280843295,
                0.009416223086229565,
                -0.015459093975444807,
                0.02929300143886517,
                0.07123579246760205,
                -0.12344790736457253,
                0.017970138082767054,
                -0.004575054944264728,
                -0.012966820954455591,
                0.014075776070482502,
                0.0005435151097047482,
                -0.15979507563402204,
                0.05513990302602557,
                -0.07454154161397428,
                -0.034006151641515325,
                0.04145560571247914,
                -0.04509501665446832,
                -0.010638930068169954,
                -0.011319391828822193,
                0.0018424037516122501,
                0.07538739182727708,
                0.00644732619060077,
                0.02636667517955349,
                -0.06245054188368992,
                -0.0059209022579206575,
                0.014101828651634707,
                -0.0051413143524615046,
                -0.05802173824876713,
                -0.05526778490330294,
                0.09752095555865983,
                0.021901970331057632,
                -0.005980226748681909,
                -0.18185903873249792,
                -0.02920370944724911,
                0.018332671951648373,
                0.05266910165613305,
                0.04656737964542432,
                -0.009710349785503608,
                0.03281016033891554,
                -0.07754240445898072,
                -0.07007282510254681,
                0.0355710451526467,
                -0.0783052736673236,
                0.02588976682917649,
                -0.1029753374525575,
                0.07112692143631054,
                -0.040392913367280486,
                -0.04302596043102497,
                0.023834893165441615,
                0.09097807210189111,
                -0.057936260366477706,
                0.04849308278726168,
                0.03266215085429537,
                -0.15718233839845053,
                -0.06462438961851384,
                -0.08628564826870179,
                -0.09716645339756795,
                -0.028133567652560063,
                -0.0021192357405497996,
                0.014358771443069991,
                0.09492213281687915,
                -0.00286135212117965,
                0.003391832947779776,
                -0.03579385339674981,
                -0.05766171136591809,
                -0.11652912705027055,
                -0.040396913669144704,
                -0.036196790576892346,
                0.005212029195564684,
                -0.006585003347071098,
                0.011637294220525188,
                -0.036232005573943696,
                -0.0994605061195122,
                0.18870669747043642,
                0.03457968604078364,
                -0.052865145925779386,
                -0.06213064912785787,
                -0.05329972861467293,
                -0.08586682118246303,
                0.06303408195946812,
                0.01736212782107818,
                -0.02766024475527251,
                -0.008790230758989916,
                0.0680719747193257,
                0.0038477201975225177,
                -0.023516524052656272,
                -0.054108827335273064,
                -0.07048598988918688,
                0.00852518008426198,
                -0.028155676003239472,
                -0.02173341270433252,
                0.0043062846011663455,
                0.04122466903170093,
                0.034891552773226364,
                0.00723899614793933,
                -0.021686301659708546,
                -0.04877634745378086,
                0.03073458269143859,
                -0.01618483584221166,
                -0.04387965955162434,
                -0.012203401795234157,
                0.025206391343226425,
                -0.08290848411880634,
                -0.015037897298410983,
                0.004440581029577272,
                0.014611027583611585,
                0.027864648037450115,
                0.047755218927949025,
                0.02142594127083998,
                0.029036485253229213,
                0.06176883481719782,
                0.06677859233920125,
                -0.06376723059947614,
                -0.03611150926895864,
                -0.058089503358786244,
                -0.15339599681081886,
                0.04889761188015798,
                0.025019448983338508,
                -0.024761649964549656,
                0.02379444027342969,
                -0.04855388452910512,
                -0.02796825763589422,
                -0.10714583710910504,
                -0.0034388758212435563,
                -0.06212509581626109,
                0.030550376116571926,
                -0.06703383318718087,
                -0.04241571695267758,
                0.0351685639095867,
                0.04378276513257298,
                0.029909924331466237,
                -0.09100639361979052,
                0.05315007823406388,
                0.060684019222560094,
                -0.06186447666814089,
                -0.002758527256750186,
                -0.08276577560273604,
                -0.052049673945288914,
                0.11692030291241054,
                0.03874089707280975,
                0.05475736545952128,
                0.04613207192114571,
                -0.05831488117316563,
                0.10056101445295373,
                -0.04261964422554374,
                -0.032211118866804514,
                0.004906896226393198,
                -0.015233747698417462,
                -0.14564625362756867,
                -0.0850535735843789,
                0.056355330276485927,
                -0.016985220799635582,
                -0.04561220180204741,
                0.044548145108046465,
                -0.04858646219961771,
                -0.04770812452747763,
                0.039797029126529805,
                -0.09429133458000163,
                0.08730158429496905,
                0.023548391559494165,
                0.10256910363900827,
                -0.06141160511042437,
                -0.061227736654909125,
                0.01822850341349871,
                0.0769998396813628,
                0.07833158470317234,
                -0.012059330969212802,
                -0.035075802846793507,
                -0.03820811089132367,
                -0.07286393466481184,
                0.024365467797962906,
                0.01243223838454522,
                0.030250205815005392,
                -0.023887619496079315,
                -0.05492574022392165,
                -0.055878197374813705,
                0.05104317392507144,
                0.07125251624922613,
                -0.028262862456263183,
                -0.03198713274597916,
                0.050904997990824666,
                0.06416976554093702,
                0.041928835474750036,
                0.047171765261955385,
                0.040202184982555504,
                -0.00556570825549808,
                -0.015509295637257616,
                0.08596831023930178,
                -0.06564164215561236,
                0.12794969776001086,
                -0.04554844418743137,
                0.004318180004400186,
                0.029572499394322417,
                -0.00860323876170782,
                0.018876650857465094,
                -0.03343674251211794,
                -0.03326242820140977,
                -0.011954140132021424,
                0.06906376408200018,
                0.0952437941190992,
                -0.003631558774552544,
                0.011132007921661125,
                0.0032221680341483856,
                0.0446094296760518,
                0.06681236775703726,
                0.0469917891916021,
                0.07194443022666816,
                0.042187602613268364,
                0.08320770357970476,
                0.0010266850104332355,
                0.04497746891054838,
                -0.003807022199398475,
                0.06292951239657443,
                -0.05663023636218387,
                -0.0072138446161353785,
                -0.021893794624491737,
                -0.0427312084652675,
                0.02391261120037112,
                0.034245545585179886,
                0.041219925311269875,
                -0.006521433818055849,
                -0.03312225297545411,
                0.09900747252571762,
                -0.054923531907629816,
                0.009482245152902821,
                0.13100622841956985,
                0.07401435950700833,
                0.10238005725502905,
                -0.016112890571381308,
                0.0153214343981532,
                0.02213862462284209,
                0.0071353338351924965,
                -0.09578956728585304,
                -0.045146228276609565,
                0.06034524499644222,
                0.005220265770401553,
                -0.009913217744128476,
                0.019625381111000584,
                -0.02503749416634926,
                -0.02246886843952684,
                -0.004944651193889138,
                -0.04228765998385437,
                0.03782334988312379,
                0.016860010226157154,
                0.026584141221929487,
                0.1216718767897616,
                -0.010361447180414242,
                0.09128255434579162,
                -0.001265680211605438,
                0.05386615252572335,
                0.050576429465673256,
                0.08455421050665556,
                0.03431872467247758,
                0.051384803887867266,
                0.07261350811851174,
                0.13612112586729763,
                -0.04175592813524241,
                0.07973861401218696,
                0.06322524217629666,
                -0.12002750843638417,
                0.03689053189999297,
                -0.06754343258487665,
                0.04943444547660023,
                -0.02002663517466297,
                -0.0020256866215903947,
                0.016154428663313767,
                0.03143546646040629,
                -0.050407602168991254,
                -0.041942342186776047,
                -0.06556110720844857,
                0.06562813487604723,
                -0.052188950697187535,
                0.006951209304708046,
                0.035136908720493416,
                -0.018085394104196906,
                0.09906113115649998,
                0.048665135918988967,
                0.02052487653140225,
                0.05031925920390903,
                -0.07622146398896347,
                0.009036589479756831,
                0.12504889665982236,
                0.11137739385657613,
                -0.004159319379439365,
                0.04455907702841318,
                -0.053624374844009365,
                -0.07072831789895542,
                -0.04178374179643484,
                0.030153576218888336,
                0.0021683685953945275,
                0.1021296601820938,
                0.053912244805285045,
                0.00783899116157431,
                0.0922495664761486,
                0.039814141185307794,
                -0.07734560199702181,
                0.07485230517773263,
                0.004131672237779015,
                0.004780154145236386,
                -0.053846214428349436,
                0.0707682744304409,
                -0.018455359370226628,
                0.021526887597175137,
                -0.02779331756008936,
                -0.012178713674136366,
                -5.414495735022633e-05,
                0.008168382990441472,
                0.05477803577427592,
                0.0024664443163537617,
                0.01513526747232104,
                0.13462608900465356,
                -0.006514893290424555,
                0.028857868641058663,
                0.02399871996511594,
                -0.021589464806351176,
                -0.043761619573286045,
                -0.02028167282393698,
                0.021332777495075297,
                -0.05009638041414494,
                0.02105405490588869,
                0.019425532001819304,
                0.045919628863882074,
                0.036589521084077564,
                -0.0234693148152041,
                0.037709643835182396,
                0.006674778142799193,
                -0.02506183628655708,
                -0.03147618627380292,
                0.031715770612306085,
                -0.04972297855357451,
                -0.029598814834652987,
                -0.007618652738172841,
                -0.027681364594518774,
                0.020618684718099772,
                -0.04786511009289544,
                -0.1089867949723503,
                0.1469002738109885,
                0.03465182405705427,
                0.13392065541218928,
                -0.026698838121879023,
                0.007387914554831411,
                -0.042909928420272116,
                0.0507393650183147,
                0.07097447192376762,
                -0.04362642912450552,
                -0.07161607083878288,
                -0.09136014395378998,
                -0.029014470068002233,
                0.04801370177283308,
                -0.09166344264599349,
                -0.021908651224655146,
                0.14444142992824718,
                -0.04182103394271211,
                0.02082487747517802,
                0.05008462225679723,
                0.047312392587161925,
                -0.0455028425027068,
                -0.04297893216631986,
                -0.011510420089449682,
                0.027000850789515182,
                0.0469990787767322,
                0.07487811805701326,
                -0.011650202308721725,
                0.1078688744785589,
                0.08354346612637399,
                -0.020057374922499364,
                0.10353977754631939,
                0.0984469567208869,
                0.0646147169030759,
                0.014336958207788908,
                -0.029524196184709448,
                -0.01239685941231186,
                -0.005341526901619927,
                -0.0021633863154502477,
                0.016681656098855947,
                0.07363621532669336,
                0.08248982175026515,
                -0.05812943235214956,
                0.001363950852348775,
                0.03179626248276036,
                0.10627995853395232,
                0.08285178804327259,
                0.03357531006641803,
                0.022544076319712912,
                0.041753361768927064,
                -0.03413588335135869,
                -0.045317814730438236,
                -0.05051108720842921,
                0.016980830107887295,
                -0.07015560037744936,
                -0.009403190928361718,
                -0.022600067454358278,
                0.0723271419454706,
                0.07233280757179042,
                -0.013448931391003267,
                -0.016164059722384275,
                -0.05627417394310556,
                0.061183043289046404,
                -0.10810252666540923,
                -0.08265187380608767,
                0.048679437106268,
                0.047461334335676064,
                -0.022057238743709164,
                -0.09266742869526476,
                -0.0030002703409783707,
                -0.01787107371214636,
                0.055355238455203924,
                -0.07396564465956745,
                0.04449563959177242,
                -0.07940329792621616,
                0.04478138501949958,
                -0.03779545572621133,
                0.012157380522028891,
                0.06696792758490233,
                0.04652558027854901,
                0.026825117835842648,
                0.005769092645945198,
                0.03019921265554951,
                0.010065822584036087,
                0.08341860617003301,
                -0.08640852086036296,
                -0.002269910765605079,
                0.0010689220536005525,
                -0.01738137688549482,
                0.02028229220805318,
                0.05363884165269489,
                -0.04986726310018702,
                0.10869541653214515,
                -0.017544744003030115,
                0.03017799274561353,
                -0.03716903037906894,
                -0.032362609894754195,
                0.0973366233331721,
                0.05834129201078455,
                -0.017380007220641557,
                -0.12101379792272034,
                -0.009713687754236021,
                0.0503471129022749,
                -0.027663856078995866,
                -0.0848142558894996,
                -0.05936796035485629,
                -0.017079410565393683,
                0.1009262660458017,
                -0.060407631142023396,
                0.00995404151636653,
                -0.03873457595064361,
                -0.036504809856003885,
                -0.004727525028473812,
                0.009035509340239051,
                -0.05265748131313503,
                0.023380321945342716,
                0.0027093436902796884,
                0.044169438083140604,
                0.03307537677317779,
                0.11134728344754709,
                -0.02518815146503922,
                -0.04282394103419526,
                0.01666073204758938,
                -0.047807461025986535,
                0.06655995980739803,
                -0.030895316078073675,
                0.13781656203619058,
                0.0024586362655082137,
                0.03291648501138676,
                0.07915745922539659,
                0.03499695689489945,
                -0.04686654740766545,
                -0.102284992146396,
                -0.03034981651369492,
                0.03249381511014715,
                -0.010448808583358891,
                -0.04739322966780051,
                -0.04827336651912174,
                -0.05070436547550587,
                -0.024720028186676013,
                -0.027638695789640705,
                -0.005889117303781204,
                -0.12376318942015098,
                0.024888112292746824,
                0.11980350363114371,
                0.09104066230882987,
                0.02787519512214165,
                -0.016924345478813614,
                -0.04723326954318572,
                0.020187680988802352,
                -0.007202656996276288,
                0.08315882400646152,
                -0.008725690088663862,
                0.026406624665701716,
                -0.05509977621049698,
                0.07763696120672837,
                0.04332026289730186,
                0.055179655039835816,
                0.08826569281981327,
                0.05713922889777064,
                0.02063457041732809,
                0.034325988595106376,
                0.08074608994738527,
                -0.04368398826108169,
                -0.1037454436996385,
                -0.06948398902152012,
                0.04984175292658481,
                0.05877609834844378,
                -0.049731287152918774,
                0.050892676007999044,
                0.025979168716824295,
                -0.0520582275534458,
                0.044361290284045174,
                0.015776740725981887,
                0.031905546513037016,
                -0.03896075057586837,
                -0.0045807361633469134,
                0.06257909583560077,
                -0.08574889836074329,
                0.020331692656000936,
                -0.014994405160615074,
                -0.051925610096500985,
                -0.020040743523335153,
                -0.0053857027887680795,
                -0.019665621558771346,
                0.025374470669662537,
                0.034261041952027387,
                0.03094785484263878,
                -0.10097147465165122,
                -0.005991937444756686,
                0.0786071467661606,
                0.019038286508320165,
                0.005098718898668071,
                -0.12219109577006115,
                -0.009765321361243428,
                -0.012432268588189403,
                0.006998608210619762,
                0.06572269954667626,
                -0.04712682134152562,
                0.08300043763975501,
                -0.044632804819202024,
                -0.007518504135509199,
                -0.08166807951445129,
                0.04142435969011073,
                -0.017199253663829663,
                0.00827203692630218,
                -0.010679604416283373,
                -0.06463241478869886,
                0.007123843467522587,
                -0.01988214078327934,
                0.019551120140119005,
                0.04607608177893196,
                -0.05013708070818632,
                0.02123666941257968,
                0.06362709681444151,
                -0.07698746337269191,
                -0.029670180077986143,
                -0.0025909837278052837,
                0.013820764198997087,
                0.009044668826899662,
                -0.029068944869469242,
                -0.03819072596792233,
                0.0196001913384941,
                0.03279915121777109,
                -0.076718879077655,
                -0.01454117633515116,
                -0.020136751000138783,
                -0.02369531610260729,
                0.019301356852476043,
                -0.0873886375955597,
                -0.08184379852616193,
                -0.04628258961966066,
                -0.08410576900139878,
                -0.006167253752028624,
                0.012237267627658657,
                0.02414297087292791,
                0.04357998101985055,
                -0.042049756846096714,
                0.08648872558340819,
                -0.04538908352939909,
                -0.06556858217735727,
                0.029284431416315003,
                -0.01774730808025602,
                0.030998297036766754,
                0.07466438774345585,
                0.004776028200119246,
                -0.0725156171947175,
                0.005899377567204714,
                0.0022970812210751468,
                -0.034638259592477856,
                -0.033849551262799725,
                0.044199442650657936,
                0.061256669789838465,
                -0.027969450299206625,
                -0.08919862420816571,
                -0.017829802560603236,
                -0.013199517027622953,
                -0.007419826830714878,
                -0.07694877749270262,
                0.041840709150677634,
                0.011457940882600548,
                -0.06406282952204101,
                -0.008441670765477024,
                -0.023090002958844374,
                -0.05842978749101284,
                -0.01608354470231752,
                0.00013966137093818497,
                0.009267027350598393,
                0.037837645852941866,
                0.07532331739105638,
                -0.023728172812828328,
                0.008127356212377498,
                0.0511673495659033,
                0.07464159711029751,
                0.02413797898464969,
                -0.06743305836129698,
                0.015225984045454437,
                0.08960939461000297,
                0.026774545468590347,
                0.027074722738931804,
                0.07187165548970932,
                -0.06892055306360509,
                -0.04939122877708529,
                0.008881419984894402,
                -0.12469595338884276,
                0.05102568018380605,
                0.024867046225327812,
                0.04844490930317456,
                0.00029734019895843463,
                -0.05389519914288369,
                0.10953905499845804,
                -0.09240432097480784,
                0.09424871587199538,
                -0.02771846489576972,
                -0.036555375261207536,
                0.022058442996118772,
                -0.05284795803043835,
                -0.018015847262776368,
                -0.003285455313257765,
                0.014936503600443823,
                0.0978320002687007,
                0.036284996801013256,
                -0.06297532751269345,
                -0.0350532362431564,
                0.007537216021329099,
                -0.02520714777942366,
                -0.07182608216827327,
                -0.048613517940628286,
                -0.03848441528905435,
                0.037747875609568916,
                -0.010715954810543986,
                -0.056381554327975654,
                0.035274235582853156,
                -0.07384950812247137,
                -0.010135812626673993,
                0.03302159075708357,
                0.05477616249077029,
                0.01781356636250635,
                -0.089659488592572,
                -0.07605982585988591,
                -0.029686247816084484,
                0.014185088849911574,
                0.05433919379200897,
                0.01639312230800595,
                -0.010360931182551703,
                0.03694590752493267,
                0.05242797979190721,
                0.023029866445924363,
                -0.01956355129133089,
                0.12616162755828958,
                0.018199618317727775,
                -0.05980186022910463,
                -0.04303950097911581,
                0.05926709731178587,
                0.03656279286337515,
                0.09505878729642464,
                -0.049475594100919194,
                -0.022363349840640076,
                0.012130126534609273,
                0.04494187160109098,
                0.010803571506977023,
                0.010550450520667824,
                0.02675322857371062,
                6.281985746444751e-08,
                -0.02604750479812271,
                -0.0025711150882272533,
                -0.10093885884350014,
                -0.058282640719758645,
                0.08476833743301307,
                -0.001443911686069097,
                -0.12201407142383933,
                -0.12436771075725168,
                0.11014227791534854,
                -0.03179886928677088,
                0.005612989987867612,
                -0.034387721115873855,
                0.05428369685377823,
                0.02154526449594119,
                0.024302822042288775,
                0.012199266745720397,
                0.003590264863847975,
                -0.02287378540954748,
                0.03627149151622901,
                -0.017096935147029927,
                0.05384187338068246,
                -0.032588215992907545,
                0.00665779370318321,
                -0.051603509562993144,
                -0.10709624121529636,
                -0.025552432337522163,
                -0.08372085078314075,
                0.04488090320684703,
                0.001876435196029994,
                -0.010958896428037743,
                -0.04284961542708279,
                -0.019524170178951267,
                -0.0471282200135347,
                0.04206763987057556,
                -0.004715558549250357,
                -0.08604545949012456,
                -0.06107130304985606,
                0.04613241919790232,
                -0.0017467848352051697,
                0.01993581341117216,
                0.012915889561111797,
                -0.15362851728505986,
                -0.013431581270581748,
                -0.001767331730655098,
                -0.008166032136513615,
                0.020216240322014523,
                -0.045576544370996994,
                -0.01637990846162956,
                -0.05907527107751497,
                -0.05797594583984075,
                -0.0030533964616731774,
                0.03911055493846569,
                -0.06048137957076467,
                -0.10552574946501372,
                0.05621644742140651,
                -0.0034456317403878897,
                2.706633175430609e-05,
                0.05227924917532075,
                0.031645464053246766,
                -0.028004437637998304,
                0.06764709760011457,
                0.01622851053119649,
                -0.019840133034268195,
                -0.0631988001964314,
                0.11207338192986258,
                -0.0827159744814516,
                -0.05329098473322398,
                0.0024248778982384343,
                0.008985355622238912,
                -0.05285702290944985,
                0.03069184808840085,
                0.0031807573674721983,
                0.02773914616110426,
                0.15876457693113194,
                -0.06055207319332586,
                -0.020059290863037645,
                -0.09543271958294407,
                0.004285329295742003,
                0.02108297510094235,
                -0.06185455677756997,
                -0.029890783188277054,
                0.05033876835957475,
                -0.04032088123795101,
                0.002124805338292799,
                -0.014800198728457477,
                -0.11917727284380474,
                0.016103844274755266,
                0.06820847224307257,
                -0.015049118445206792,
                -0.07254337463488518,
                0.013404739905769448,
                0.005813315852929336,
                -0.030284544999932727,
                -0.04039675032853004,
                -0.03713400420893129,
                0.025129928678255708,
                -0.07543588801110898,
                -0.06404549672829571,
                -0.04819477308695476,
                -0.07858820812977431,
                0.01658748934144836,
                0.07525398219865312,
                -0.0053925613051919235,
                0.008209779085171722,
                0.08543179806859093,
                -0.017341845756799392,
                -0.022791318030271623,
                0.11543601445713521,
                -0.08517752804913632,
                0.05986336351094273,
                0.01332079453714843,
                -0.05183285765540959,
                0.07217090882334481,
                0.046301029396171006,
                0.029078854627966878,
                0.001213262654509283,
                -0.00848077201522841,
                -0.028097448574249177,
                0.017204001696654914,
                -0.054985729493275064,
                0.0260854056426251,
                0.011469436856072912,
                0.0682898038651966,
                -0.009193320274019265,
                0.03792304334502906,
                -0.01647770867372751,
                0.003624982987920285,
                -0.004284430385263742,
                -0.05467227297622331,
                0.03894033474001769,
                -0.036527194352217546,
                -0.045967902328593185,
                0.049413690353884855,
                -0.027968784796171754,
                -0.0024438766030970725,
                0.02035182100284737,
                0.017478354965613906,
                -0.02196428643350641,
                -0.02434090354268566,
                0.01086659446221286,
                -0.18309091657702092,
                -0.05796361321408666,
                -0.015149948535899117,
                -0.014360551759297562,
                0.08824975823835536,
                0.014803717802843369,
                0.02591905885676548,
                0.06877782652479555,
                0.04505548266836484,
                0.03417700992105035,
                -0.03757592650157586,
                -0.05898486473477497,
                -0.03058021458523396,
                -0.041365970323048014,
                -0.013781682077395012,
                -0.05342918506195262,
                0.013523740520989461,
                -0.005557310503144719,
                -0.043021222728931545,
                -0.06624287684708514,
                0.004399339780513369,
                -0.01319751315731842,
                -0.041558454789914635,
                -0.03902160849358187,
                -0.006407127515377204,
                -0.01465494554755729,
                0.0511611592617911,
                -0.036496344303983984,
                -0.020176371460599772,
                0.0022895148904230303,
                0.009977571100773137,
                -0.09458935693044276,
                -0.02429126718690527,
                0.12204295665261786,
                -0.036663841232632687,
                -0.00023738641091567434,
                0.018540844454956722,
                0.0120378189885328,
                0.06294520135135721,
                -0.06713773655566481,
                -0.029287907909644757,
                -0.04460211804534238,
                0.10838418806605363,
                0.006010055349376643,
                -0.04514457037655024,
                -0.025411861835456767,
                -0.010507347888552945,
                -0.024040190098025892,
                0.010370223987792568,
                0.0639243861726649,
                -0.025138045129822272,
                0.07946369021795423,
                0.07225825353736522,
                0.031828124293660345,
                -0.10937723244786242,
                -0.029386009891632696,
                -0.007050149087480786,
                0.02677472399019809,
                -0.036120745529068764,
                0.04314407034386987,
                0.024638325376252292,
                -0.11728368386747234,
                0.005425016518219048,
                0.0682048995747066,
                0.012866206785214001,
                -0.005589834868605099,
                0.09359724787567106,
                -0.003423333996051139,
                0.009705543756128768,
                -0.042412447758085906,
                0.04967866751369532,
                -0.00402532184691908,
                0.024643369735789896,
                -0.03387239820821414,
                -0.09606997550898543,
                -0.057862276680047495,
                0.014030370897168003,
                0.061532890378896185,
                0.03837360575426997,
                -0.040025377544685485,
                0.06855210999587118,
                -0.03713237606991588,
                -0.03441291004003805,
                0.0016074019771612326,
                -0.05451659449979637,
                -0.06441354929799994,
                0.06603217650828502,
                0.005625915143352226,
                0.07182126079934872,
                0.11830927487512054,
                -0.015035555291963057,
                -0.10384081818913296,
                0.04480782096697775,
                -0.05451326842655375,
                0.014653617349081756,
                -0.036221508153702835,
                0.022820789781719395,
                -0.011639687332608475,
                -0.012076696664170607,
                -0.07042828324957649,
                -0.038945306664935966,
                0.002854699227820194,
                -0.013512036700125055,
                0.03809595971949505,
                -0.021617806852223514,
                0.04731326093151769,
                0.06197990312856032,
                0.04407540226378799,
                0.019967441545191374,
                0.004686864134529533,
                -0.04141795008639291,
                -0.05429570821744521,
                0.08931614664171411,
                -0.006273931070050317,
                0.033099228665172196,
                0.03375031423723859,
                0.024840263877993356,
                0.1334192478529638,
                0.044644847566713726,
                -0.02561372353217432,
                -0.008825342599773892,
                0.01253477730359924,
                -0.009068219863575939,
                0.07450304312223924,
                -0.01833081337105216,
                0.022171386413699472,
                -0.00977941463013097,
                -0.011545175294598557,
                -0.00045608731989992424,
                0.10304480029709605,
                0.059012978979171224,
                -0.00017584181529880382,
                0.012240646386943051,
                -0.061426463104780435,
                0.024711453816248192,
                0.06941034391425008,
                0.03718700853629812,
                0.0831592910185616,
                -0.15639196623202287,
                0.007997597318201074,
                0.011948639310763757,
                -0.013154442404873899,
                -0.01808978602320801,
                0.023475278061026835,
                0.009923726165099848,
                -0.06684351049654956,
                -0.003250530918044657,
                -0.04222199855479708,
                -0.047503736735732154,
                -0.09511682950738475,
                -0.026014653666921645,
                -0.01596140182638927,
                0.018276244156930667,
                0.022929466929251983,
                0.006373987058267139,
                0.09309919050714527,
                0.006172541773648576,
                -0.10556965773016894,
                0.0008104417629308106,
                -0.05995562282816149,
                -0.02267964739061309,
                -0.026506144245519718,
                0.03187232036700663,
                0.0023773810058805404,
                0.00020607720467376235,
                -0.09671002604883337,
                0.012896079275529843,
                0.004242002289412778,
                0.0008085685042110892,
                -0.06307536637142806,
                0.05425676606763049,
                -0.05841564763807834,
                -0.0014733907704806322,
                0.06980391694684944,
                -0.04755646137986299,
                0.0232906239070873,
                0.034051042281391275,
                -0.028472752192219387,
                0.04626222482697581,
                -0.012941548957313432,
                0.060173139186172765,
                0.037747123409467946,
                -0.04604460316424855,
                0.005028020654089548,
                0.06129951019921428,
                -0.03362144966132024,
                -0.044395217269225185,
                -0.03863546771627673,
                0.05206356218008564,
                -0.08425744944257181,
                0.07826868349607553,
                -0.013644872915213987,
                -0.04097299274541439,
                -0.07515209169114127,
                -0.023417611284752123,
                -0.030281298858034066,
                -0.00826244428721539,
                -0.011048098534972675,
                0.027329578666393062,
                0.01433314041401212,
                0.010327840645229283,
                -0.02148439550965267,
                0.014907560519620697,
                0.0024804441877040537,
                -0.028416615823534584,
                0.04844383728203359,
                -0.032763204624015954,
                -0.017865444479378836,
                -0.1295405720155491,
                0.02203398268458692,
                -0.013031121503798454,
                -0.0799276839717763,
                -0.05367911031102315,
                0.0016861727859313572,
                0.050898187644490105,
                -0.011674341326179498,
                0.046014744294372,
                0.05435329186501693,
                0.023929685007111696,
                -0.003439779341640858,
                -0.002703878664498894,
                -0.106361630127381,
                -0.002718764336154601,
                -0.08038093335063602,
                -0.06850203183753414,
                -0.0667790639822482,
                0.019679908670404027,
                -0.03812406703284025,
                0.007790541678039986,
                -0.05590183484061567,
                0.10597020422335487,
                0.010186238975853136,
                0.016944570448312365,
                0.07927724562965474,
                -0.06502704003222351,
                0.02410364785794683,
                -0.05619132766118574,
                0.022382072587998514,
                0.020166639146418763,
                0.024318101515199014,
                -0.045806772081342706,
                0.020979273566114395,
                -0.02048489516946807,
                0.040495179697097344,
                -0.03829743598714889,
                -0.0568703731555019,
                -0.01283888699350603,
                0.11090680863689567,
                0.0022739262539949352,
                -0.023615757979963906,
                -0.024053041914099915,
                0.006964848106567742,
                0.03774441073173659,
                -0.05274737241949251,
                0.015650639188218234,
                -0.08793502253157118,
                -0.08424617603395763,
                0.07654458647658538,
                0.013843138623623472,
                -0.013836462239905187,
                -0.014794327095112957,
                0.062110893914551164,
                -0.06318159200567894,
                0.04618892316567295,
                0.008234539140412736,
                0.014372763969523214,
                0.021166134488493516,
                0.05356946200123189,
                -0.039744304864342994,
                0.09523611565837228,
                0.02550296459886695,
                0.0013571569900708421,
                -0.06807317738158791,
                -0.018503760440994457,
                0.006626978977613868,
                0.05685706836100701,
                0.055327749817988416,
                -0.019964248160222794,
                -0.005702004476644046,
                -0.046459472603424715,
                0.09251462330523122,
                -0.04998660327377578,
                0.02493843264820902,
                0.05902949293121937,
                -0.10874239175978102,
                -0.02382774784912712,
                0.0093348156243111,
                0.07024471304830639,
                -0.059902232908661354,
                0.016160276526674202,
                -0.06250177056550908,
                -0.01504467346639105,
                -0.015755657889070428,
                0.0241861248268424,
                0.03751317369945227,
                0.03235418848969837,
                0.022030503551054206,
                -0.07435170848010299,
                0.03461980151275489,
                -0.011323977601007118,
                -0.003397863566448129,
                0.10232264968292332,
                0.04754943415016488,
                -0.0092179570753635,
                0.018702905205776433,
                0.0634652099306319,
                -0.06897618157088045,
                -0.04215219559064321,
                -0.07410641304059036,
                -0.06847226786454923,
                -0.006093504723082193,
                -0.09000363514665839,
                0.019742729658976426,
                -0.006010561569263337,
                0.038333925871213086,
                0.07860875585704864,
                -0.002272298065203658,
                -0.05506559415783075,
                -0.05340708322425884,
                -0.03273288487343644,
                -0.021148541964545468,
                -0.008737609413215516,
                -0.03998314091983418,
                -0.031510227359329075,
                0.005351680247292076,
                -0.04938178449627906,
                0.05247460114773901,
                0.049185346156557584,
                -0.014484637721077798,
                -0.10279825457327395,
                -0.0287769148430626,
                0.13442821718665204,
                -0.0031836954483625895,
                0.05327879143140864,
                0.030066355924490272,
                -0.07945572569239374,
                -0.037740073043296414,
                0.0029913222947602655,
                -0.02935475180810675,
                -0.012250598877324896,
                0.06174528956738977,
                -0.07043601478871103,
                0.09323344318289448,
                0.08545893775510174,
                -0.03881686003640148,
                -0.09492664814030893,
                -0.022622805262045246,
                0.04838257249775522,
                -0.055669686711429266,
                -0.09930911510960178,
                0.010289547062621219,
                -0.030742267016367068,
                -0.03238209039034047,
                -0.12074183955145601,
                -0.04043613267596199,
                -0.16629154633886278,
                0.055826112138135896,
                -0.04439910432467196,
                -0.017224769711205793,
                0.02440486914327567,
                -0.0528335414588596,
                -0.08527188185135909,
                0.1270969444264027,
                0.00977346927652056,
                -0.034438734247024975,
                -0.03567900357050831,
                -0.005371600396351067,
                -0.09242317476800198,
                0.057561110593764134,
                0.036583339149526266,
                -0.011520423889758932,
                -0.03636839243042893,
                -0.09624097037434033,
                -0.025794866100822163,
                -0.044825046096822266,
                0.04252213438696181,
                0.023612909221207998,
                -0.02803333765451983,
                -0.0678746279993715,
                -0.03862576498010926,
                0.06901821358185645,
                -0.009923124857099066,
                -0.06613605831528303,
                -0.11191239501110782,
                -0.02007958060818084,
                0.03554334108481123,
                0.04264743740496198,
                -0.04208454473085456,
                0.02615530688738616,
                -0.06391823990470993,
                -0.0019464305646808245,
                0.055885816244565165,
                -0.013112808576965429,
                0.03462267355753854,
                -0.052594829647838764,
                0.043357840539836205,
                -0.024982379749360704,
                -0.01520109982737085,
                -0.021346089164089116,
                0.0044208383744740965,
                -0.00022107256020119392,
                -0.0006365965492145953,
                -0.046818170582060115,
                -0.0476279714178786,
                -0.07178724275434772,
                0.02956934862241672,
                -0.07037639889882123,
                0.00825830662077523,
                -0.013925585156402185,
                0.016001362577970604,
                -0.059344179236718884,
                0.051462795515062956,
                0.10901667092180013,
                -0.019982909757704552,
                0.09361608883572092,
                -0.02079590027895563,
                0.14106393302893908,
                -0.0009763390749801871,
                -0.0017561072264218646,
                0.012275874228247009,
                -0.0644779527668044,
                -0.08008462381497614,
                -0.005973508528777373,
                -0.043994504734071724,
                -0.07562530887838079,
                0.07061605316677819,
                -0.03770696495331306,
                -0.025534624418181478,
                0.1066583160281776,
                -0.007101110398743612,
                0.03467836038486863,
                0.04898256797596307,
                0.11163722589670422,
                0.11252130364893034,
                0.010310918088106236,
                0.02951217507603975,
                0.042272415501487415,
                0.002675436708459257,
                -0.06635207125136564,
                -0.02819456971069025,
                -0.0028858334191224286,
                -0.07206708949077889,
                0.05913335285266214,
                0.029274435157399723,
                0.0628641289661012,
                0.0911552081944309,
                -0.019206966800890662,
                0.008083789574234338,
                0.06580257313246886,
                0.049325819178188464,
                -0.0536557840872924,
                0.002650272995391953,
                -0.008268605339320938,
                -0.03133762182215909,
                0.05564039964133116,
                -0.11515064427652542,
                0.13216133854053294,
                0.034964517966111566,
                -0.13313313978856767,
                -0.029781337541952876,
                0.033274972839959845,
                0.002019144890993648,
                0.04090219958277985,
                -0.06288787757136906,
                -0.058808871827603575,
                -0.01706533992144395,
                0.049997399258228936,
                0.011411048669671034,
                0.012684580031978344,
                0.0156030058419217,
                0.05993121997132259,
                -0.042406566621665004,
                0.009218293918218415,
                -0.0380803566349798,
                -0.013657420689661836,
                0.002174646305002167,
                -0.0011150677829107152,
                0.0022254681606721774,
                -0.09097602576798952,
                -0.02478403748138251,
                0.045217887990182996,
                0.048774465472072565,
                0.04623932062006692,
                0.03614897396032937,
                -0.019161998405980922,
                0.032766073766068236,
                -0.018931957324432938,
                -0.027948190059186254,
                -0.09490830250796276,
                -0.023318797389771682,
                0.010147006811015397,
                0.022042082613649573,
                0.042454323549484974,
                -0.07478544787801561,
                0.024345708787802303,
                -0.024929048080933783,
                -0.014686572220677242,
                0.008418039449348292,
                -0.02147660861500802,
                0.04250727321223193,
                -0.048831689805733575,
                -0.029508885455396667,
                -0.02637039412146194,
                0.058477611144305525,
                0.011074621323414266,
                -0.039289160503036304,
                0.009889454966187356,
                0.003451432620798398,
                -0.017651184184152652,
                0.038768163830744114,
                0.010993545361776783,
                -0.08235284779283918,
                -0.06972112398004632,
                -0.03317177624925218,
                0.011704212312925502,
                -0.14754397485078868,
                -0.017248075873270877,
                0.024599794622247453,
                -0.03201877104296659,
                -0.03785206075423325,
                0.008450439699949835,
                0.07040740407148813,
                -0.08234440975043769,
                0.013561400494368185,
                0.031166612890997963,
                -0.06345802513995737,
                -0.04784777923123693,
                0.0020131970093713023,
                0.08701151584971328,
                0.03653899321917427,
                -0.01635441686924812,
                0.016400384822668083,
                0.12439379973606762,
                -0.027537973681814893,
                -0.1386943400537863,
                -0.058938121607201216,
                0.06572112136024856,
                0.029969621123421497,
                0.007828427801025927,
                -0.04048402091095509,
                0.0015827487176731994,
                0.01856338751291193,
                0.015942343012756047,
                -0.008246219786592023,
                -0.04109502779534275,
                0.046877561691650464,
                -0.04922522165974239,
                0.07031669898038065,
                -0.1400533284772239,
                -0.013126003175438722,
                0.02229204860125169,
                0.01243480705475645,
                0.017012768963689227,
                -0.05466043992168437,
                0.004188531661501666,
                0.001987558198735263,
                -0.12713037085509726,
                -0.01063073046281156,
                -0.09142379981401712,
                0.07476490520910589,
                0.06250514029577676,
                0.035452528155355316,
                0.09520890569032685,
                0.07303971373980618,
                0.09380216913684584,
                0.05592776438671787,
                -0.030371499330630963,
                0.0526044206791982,
                -0.03698497593973656,
                -0.03926449219684828,
                -0.07126360996914868,
                -0.015011599590199647,
                0.016518668679868207,
                0.006442196498669997,
                -0.025791826184024615,
                0.006559368968079411,
                0.03827344643711255,
                -0.02341815802868909,
                0.019298663448698728,
                -0.05057150440785789,
                0.048980841323690426,
                0.0688305879427681,
                0.02317744147379777,
                -0.027119426553725658,
                0.013015649288988212,
                0.014729142352614253,
                0.03395684611769813,
                -0.015367906714242199,
                0.02671752417976556,
                -0.06176981237223439,
                -0.0028136428256551054,
                0.019157783998270245,
                -0.009316637947405016,
                0.042976151714004554,
                0.10950028588534742,
                0.022109942139830124,
                0.01721807515278809,
                -0.024008588728318653,
                0.025918194024101168,
                0.031511277728279226,
                -0.03108174509901401,
                -0.024946042292170883,
                -0.1085338588391924,
                -0.010883975749676604,
                0.019334791215610457,
                -0.09646909695896604,
                -0.06155786409452889,
                -0.0018678475173722223,
                -0.03176599531298945,
                0.0012793168656233301,
                -0.07205866664117838,
                0.01272793901047474,
                0.032554102797101546,
                -0.04064166091694404,
                0.07033536525590105,
                0.004668498895720505,
                0.08861125368745136,
                -0.06613140058156032,
                0.05811150598436567,
                -0.015385096957419079,
                -0.028317912924686287,
                -0.03866614317485494,
                -0.03845579106393696,
                -0.018339627293113524,
                0.011516435154984619,
                0.0015646881837747659,
                -0.06127157397839187,
                -0.017127178161381693,
                -0.0032177183032907138,
                0.0008396299845400835,
                -0.0411108516118075,
                -0.08256142551754671,
                -0.033920302400447834,
                0.03151045810628984,
                -0.031201993941392548,
                0.011094695679183865,
                0.0037106928638856555,
                0.023832895494438688,
                -0.012508976769553705,
                -0.036265925397204316,
                -0.06037110510885656,
                0.07857981893578554,
                0.04657849530778761,
                -0.089499406444596,
                0.004913831887484096,
                -0.029062190866005148,
                -0.02332366267460453,
                0.02070926186079352,
                -0.0027140168172167497,
                -0.06126035758535194,
                -0.03586990140152268,
                0.09656354158227641,
                0.028097457576110395,
                0.03196188945933279,
                0.01430882252096809,
                -0.005746740285581097,
                0.04684879433620396,
                0.046367128375480876,
                -0.026286487425083088,
                -0.03272638424108431,
                0.021007894532448307,
                -0.006576640860861054,
                -0.054998689293248665,
                -0.03385199151989107,
                0.03228788508779379,
                0.01658346439436624,
                0.012792997016944386,
                0.03349243266458723,
                -0.0008754422784592645,
                0.00711280667703804,
                -0.0343971323981283,
                -0.07377868032302988,
                -0.05384318077135898,
                0.03599657560090987,
                0.08872346998492747,
                -0.005366424198604466,
                -0.04285264339395085,
                0.026871843787887408,
                -0.0325148759193678,
                -0.028339348282683866,
                0.004799997763437791,
                -0.06564365159576163,
                -0.03870772810327405,
                -0.048286359599300964,
                -0.011031932024348075,
                -0.07356257581627947,
                0.03603695926010388,
                0.05010360735909177,
                0.030301333194892366,
                0.08891326388012438,
                -0.02044258804743343,
                0.07970232555937674,
                0.015272470250124697,
                -0.05274674406350105,
                0.12282060265599898,
                0.05620248353471638,
                0.04208074967556599,
                0.06340477163717562,
                -0.059187168444253625,
                -0.022658770361451756,
                0.009357853359159177,
                3.627683913040172e-05,
                -0.07462757678220122,
                0.036771292981149124,
                -0.0015023588166822388,
                0.07847021826164283,
                -0.05093762883629757,
                0.03050775698229788,
                0.0036835218920005237,
                0.04101555827411691,
                0.04219946327127166,
                0.01479175295892717,
                -0.06755635783267701,
                0.0027718276723481023,
                -0.004854976643695709,
                -0.033999036518492474,
                -0.026922152040792683,
                -0.01839768829688163,
                0.04585473885034209,
                -0.029970767809868747,
                -0.0895222302864606,
                0.027711815445983726,
                0.0020225625170828547,
                -0.046390955370101745,
                0.18151433647305112,
                -0.01426076515246511,
                -0.06428466498079562,
                0.040614960136579205,
                -0.06930689997930739,
                -0.05280552153140768,
                -0.06319153045389272,
                0.11848160398286689,
                0.01967700343588581,
                -0.042774343034261454,
                0.013800567405625285,
                -0.009190885505884438,
                -0.017032281059973297,
                -0.02366819936224463,
                -0.011882396691312339,
                -0.016731626153823786,
                -0.005654192703564472,
                0.02272334316921434,
                -0.013353257328046982,
                -0.02933283525423218,
                0.050830978354933255,
                0.14310349044710555,
                0.010890285093625626,
                -0.04743149595193069,
                0.017736420912391065,
                0.07261409404325325,
                0.04393817179167512,
                0.004999538896465345,
                -0.04233565502932434,
                0.027133693938529487,
                -0.045357435885568974,
                -0.07627432533986202,
                -0.06987825043071422,
                -0.048631122941394975,
                -0.01749065041070688,
                0.09119479548185322,
                0.07089710992472535,
                0.07198467761377494,
                -0.03660925040357352,
                -0.031470747584967936,
                -0.01069395223714739,
                0.05445906809003001,
                -0.060296472782002335,
                -0.00038348526603089526,
                0.052918495501263915,
                -0.07472823579711824,
                0.09349349507244639,
                0.011144728043055404,
                -0.10090986341554864,
                -0.07564898540679084,
                -0.014174767214769237,
                -0.013504887690435495,
                -0.06507681052548829,
                0.07512577276798087,
                -0.030282993746451773,
                -0.03200197726862518,
                0.1001748584577507,
                0.09107970099335778,
                0.09955484756234648,
                -0.07321851121285772,
                -0.06966172871879152,
                -0.04849526712814801,
                0.0878161529468631,
                -0.032090321463372706,
                -0.022456533141564743,
                -0.022235250153375383,
                0.017600400226978643,
                0.06681789854198392,
                0.03054822494992731,
                0.03219064293907756,
                -0.02342610903368063,
                0.008376148567347348,
                -0.04486532229010731,
                0.09223109134049065,
                -0.03618709660162773,
                -0.029878394895087968,
                0.010179076889971647,
                -0.018780390396619755,
                0.005252854340999687,
                -0.014842306188236792,
                0.01420320027450219,
                0.04311675832657621,
                -0.03722143496133933,
                0.050066886240931224,
                0.09016616857929459,
                0.07909683581527584,
                0.1179712811402009,
                0.025247398490062006,
                -0.00278543205341446,
                0.009133259844780356,
                -0.03362875398168345,
                -0.0722967803567421,
                0.08789483016722074,
                0.0800555914915929,
                -0.06936114750605661,
                0.009850107170492032,
                -0.06529115389489937,
                0.0011862660406247948,
                -0.050735869286026566,
                0.042241669662719514,
                -0.006747065607578402,
                0.05050420270196035,
                -0.01940188995041965,
                -0.10110900015433756,
                -0.02987187735193976,
                -0.004072305686403174,
                -0.04062797787075738,
                -0.01336088647828169,
                0.09612592549152031,
                -0.06296956334333334,
                -0.02896393448179503,
                0.06571891880283691,
                -0.014548586453278164,
                -0.04724464549021348,
                -0.06598586293377451,
                -0.021308963163793188,
                -0.07251381030150565,
                -0.05931700865323385,
                0.041914638190225485,
                0.005640080762332828,
                -0.06381985143436421,
                0.09293517775757261,
                0.03829018565477103,
                0.027003641694192525,
                -0.05310990072564452,
                -0.013825304155720872,
                -0.06552411605274981,
                -0.005888510777295552,
                0.012258708591208731,
                0.02519991025728529,
                -0.08742693693052432,
                -0.04406820150629772,
                -0.05455864134936344,
                0.01221563869339835,
                0.069813637855799,
                0.04417342032577349,
                -0.009257667345215635,
                0.08270297504666207,
                -0.04739445224566815,
                -0.09820196768802951,
                -0.09497846906288153,
                -0.17348862898212097,
                0.023019791666030843,
                -0.11805246911485061,
                0.0033566302963510615,
                -0.12604934923632705,
                -0.07252685887348202,
                0.040425230644413425,
                -0.06827392510639525,
                -0.06979646979321932,
                -0.02009027754773083,
                -0.05635833925535076,
                0.010015654588784704,
                -0.012455555289413034,
                0.022155970122403418,
                0.05586574687227001,
                -0.075929438665866,
                0.005631547502687212,
                -0.060614027788515386,
                -0.10837902428567653,
                -0.04033720936541814,
                0.07285490500421783,
                0.009347164625511887,
                0.041540089166870825,
                0.012831545075769646,
                0.0880451057265672,
                0.026182058290989133,
                -0.06553759563981071,
                -0.0371092868341597,
                0.01704231527531903,
                -0.07849295448381768,
                -0.04132815039900934,
                -0.06318892872012809,
                0.03149508339904021,
                -0.06597734057014173,
                -0.010372576546536717,
                0.005762566276532911,
                0.04184690282339982,
                0.029958108683015534,
                -0.022790911964987386,
                0.04762586158375775,
                0.009893802159824786,
                -0.09751653385750109,
                -0.045711342145051105,
                -0.014592893358968816,
                -0.024838048256890694,
                -0.005791745133310115,
                0.039625037119022696,
                0.014958730863153776,
                0.020402229995454983,
                0.029628445304104127,
                0.05485551070518246,
                -0.04955777617620893,
                -0.012945619331773836,
                -0.033057565849672,
                0.00737449590362447,
                0.0032846152160907896,
                0.000625567384912931,
                -0.034935201855825895,
                0.056813126349875065,
                0.08084602090228521,
                0.016437873495757933,
                0.011855591852419795,
                0.0952255733459234,
                0.04844847544860132,
                -0.030699937540906084,
                -0.023878389521859347,
                -0.06976994387033363,
                -0.005232252655520875,
                -0.020361091884192585,
                -0.011764698491618373,
                0.07221038737098226,
                -0.035269923344039146,
                -0.09491790405125235,
                0.021258053100369524,
                0.01927012362222204,
                0.03041086491078139,
                0.05656036270609949,
                0.06567996357333437,
                0.06252334577664823,
                0.06497552264519543,
                0.10111928814402887,
                0.08141473938476723,
                0.057840370879321194,
                0.026397841142417486,
                0.010841141690075225,
                0.09103549414898632,
                -0.007670552153998914,
                0.10656917871209044,
                0.02870118233888802,
                -0.0303923493872355,
                0.044639095162985844,
                -0.00501514230645031,
                -0.027193962941997177,
                0.042414980367997394,
                0.020035283240033546,
                0.021644384778068963,
                -0.0029420401491807406,
                -0.02008453207597158,
                -0.010038855142000874,
                -0.018326196377127763,
                0.016654775085937875,
                0.04120377476096965,
                0.006542412925655444,
                0.06313098925842568,
                0.035212671296593015,
                0.022462145356157974,
                0.0024671783024077646,
                0.06998766192286898,
                0.04532753048916138,
                0.10986967078022142,
                0.06621594285320717,
                0.05871692050751309,
                0.05181249445437839,
                0.11946781946237753,
                -0.007511415327363368,
                -0.043094892719134394,
                0.1034486933446459,
                -0.08346325146415372,
                0.0036149800986404555,
                -0.05553758334026144,
                0.05014900105311608,
                -0.020809162252053676,
                -0.03508321283840062,
                -0.027511731977705147,
                0.037657346135228476,
                -0.044149043238940894,
                -0.09289764892381822,
                0.040631495627343424,
                -0.02545152062871194,
                0.03601322533915879,
                -0.02810008833943273,
                -0.09843786316165272,
                0.0876003472266904,
                0.06555979247019882,
                0.060642332628193574,
                0.10092728344567853,
                0.17018300362070535,
                0.03303032697963761,
                0.13768620606685653,
                0.09863767993340586,
                -0.012534293922140394,
                0.017375206843049062,
                0.08044551361034523,
                -0.04088320452905173,
                -0.044906766189136485,
                -0.024250800722599438,
                -0.05913999018899696,
                -0.052886177241974884,
                -0.028390549033067883,
                0.007279063970620135,
                -0.001844591177924783,
                0.1005652680790099,
                0.0635337556822716,
                -0.0037092663183537016,
                0.05076087716355416,
                0.05062898106736503,
                -0.10363894520001472,
                -0.07270679196745915,
                0.03933206300666535,
                0.0013895837690024741,
                -0.038692214547170596,
                0.02169885993651743,
                0.04117824647623603,
                0.08823176311266827,
                0.10350068458100317,
                0.09444787526016248,
                -0.0006859274261649827,
                0.13419008178856037,
                0.051794560824461836,
                0.054594216163426586,
                0.02043236393091358,
                -0.004420563244093465,
                -0.04881597661381183,
                -0.06558283775738533,
                0.008113990414115462,
                0.0492757707816742,
                0.08042618549185217,
                -0.024489907083093707,
                0.10140977545936089,
                0.006567112020979681,
                0.06183586847123711,
                -0.04300406295619971,
                0.03676534464064666,
                0.03174163341329821,
                0.08673356696941403,
                -0.010824799623947895,
                -0.11001463156068873,
                -0.05868627313827311,
                0.10704756088828427,
                -0.04498771082506734,
                -0.02259151786975777,
                0.060614355604635316,
                0.020435959656130803,
                -0.04853977083603425,
                -0.06609260954284804,
                -0.1369190221333984,
                0.021371914020436148,
                0.0025768372060849826,
                -0.012993330696821322,
                -0.033909341384047054,
                0.032561176762766486,
                -0.08049877476781371,
                0.023367812833112848,
                -0.145086636027325,
                -0.07679420464769525,
                0.031472186748903515,
                -0.029008303169887003,
                0.02954338452399839,
                0.047423466837296556,
                0.028740473992378578,
                0.026606614225820426,
                0.024719003802939496,
                0.0057318628189043114,
                -0.049350067743242354,
                0.06756060699301082,
                0.07822805383972012,
                -0.15268636878628675,
                0.029587463576465058,
                -0.006812639224542248,
                0.018007416103241424,
                -0.021460974587502173,
                -0.10309172818358793,
                -0.07239852503569935,
                -0.04959691084302324,
                -0.007803860041608257,
                -0.014929295581709506,
                0.1038127883276364,
                0.010915044692213537,
                -0.05992890197570841,
                0.07440691156948631,
                -0.018767213320756072,
                -0.00616500778559705,
                0.03476582107669666,
                -0.11898196792526883,
                0.06283964997584658,
                -0.07746752815830475,
                -0.08226858808248624,
                0.00037953701460137186,
                0.02761168045409793,
                0.03995290393253345,
                -0.020063678528669,
                0.032004027019508476,
                0.0823154160773113,
                0.0285493299996235,
                -0.09539906649411127,
                0.023600456165133014,
                -0.01057318266087267,
                0.027584175043550947,
                0.0006201671490978205,
                -0.017143635130483406,
                -0.03864010263252672,
                -0.03984691771013503,
                -0.009321734361559376,
                0.02437772521070022,
                0.10404764548014774,
                0.005266363059467294,
                0.051775034510853274,
                0.02397294722357023,
                0.09617717958310205,
                -0.11123270938442574,
                -0.09700234603933627,
                0.10714024668329615,
                0.02402667034914505,
                0.02704816887588557,
                0.0445455405526055,
                0.07476384188533239,
                0.007156582596278598,
                -0.03268201700525401,
                -0.06873355361240328,
                -0.03854442048885464,
                0.0076639106146095875,
                -0.03138237082751163,
                0.062155536426542014,
                -0.04546827785037882,
                -0.007736033178573579,
                -0.040635769980242986,
                0.04248500339489383,
                0.005141173067627115,
                0.07023236490370696,
                0.013525735909486258,
                -0.02149556252108513,
                0.07020272703039133,
                0.051510787618264,
                -0.04167872799281716,
                0.10787425698576182,
                -0.039223401070985896,
                -0.01458885902937515,
                -0.10808168689205368,
                -0.007235394619700463,
                -0.005781249375292792,
                -0.023251592338851643,
                -0.008311753923107778,
                -0.08175275594063633,
                -0.059425895655779326,
                0.0005705589387644401,
                0.05161369642843767,
                -0.03524244216499339,
                -0.07433256148045568,
                0.0458178123630715,
                0.007440774243658721,
                0.029538441332196044,
                0.014635081390852544,
                -0.015323913986917568,
                0.0294044925486575,
                -0.0318469309302478,
                0.05000245402946537,
                -0.04720747259136858,
                -0.02617446928256852,
                0.06288937840212708,
                0.003818124914407962,
                -0.08550032345865054,
                0.023943597443196078,
                0.05899498031442744,
                0.007183250165995696,
                0.07988899089257631,
                0.0030098231093734383,
                0.0185506174951421,
                -0.015517253639860284,
                0.045256492343230724,
                -0.007376040325828584,
                -0.015286549689392515,
                -0.03576193194783792,
                0.020038363673746448,
                -0.008603619007994757,
                0.03916557624709667,
                0.029708436671530516,
                -0.1503810197366332,
                0.03152706482957897,
                -0.02442181913222602,
                0.03178385438461743,
                -0.02743178000280716,
                0.0055271047832038366,
                0.007965371827857885,
                -0.06133155375383647,
                0.06296537712397761,
                0.0629310483717352,
                -0.05034034729437671,
                0.081712616479505,
                0.05636698645508039,
                0.03517463578985529,
                -0.03812116230600612,
                -0.02304744919591736,
                -0.05587924348816369,
                0.0017990894624470718,
                -0.01980798586010115,
                0.0027059517775009324,
                0.10630267650305225,
                -0.0913660024794387,
                0.0140941395715694,
                -0.07671192465041489,
                -0.006568018749478182,
                -0.04798959125027491,
                0.07732392969553906,
                0.013724571938131059,
                -0.01113395658897113,
                -0.03969687434422169,
                -0.032265583846378676,
                0.025906785466709704,
                -0.05043014767548608,
                0.05246464648738434,
                -0.033352536561623174,
                0.03681109614231659,
                0.05184332979508077,
                -0.05602165973861549,
                0.0007626706030986578,
                0.03478353970525247,
                0.051750846218941535,
                0.026223587675130285,
                0.07604638875002681,
                0.05057383061404792,
                0.10903519953513321,
                0.0038464684201662647,
                0.035016765340505365,
                0.02001645491816986,
                0.025442433366565462,
                -0.014415908210527554,
                0.13002117250979925,
                0.02125685902811943,
                -0.03908980093439035,
                -0.024620256030350753,
                -0.03754303010943115,
                0.016352178534557515,
                0.04392031870386007,
                -0.05782243997899177,
                -0.01205033505251714,
                -0.003231051399581016,
                -0.04294823974147532,
                -0.030675760823726306,
                0.07689902632572716,
                0.1025617549751324,
                0.057711370606340434,
                0.044532541739952455,
                0.037724566828370665,
                0.05969603405274694,
                0.020762225115016474,
                0.050296494689786114,
                -0.013711962011425733,
                0.02193469286888678,
                0.1382714041826902,
                -0.12221543613968097,
                0.032664038555174066,
                0.06560658276645555,
                -0.0011244589095272268,
                -0.024906830342190534,
                -0.06371444916878419,
                -0.012713959237899777,
                -0.05134689888222181,
                0.024435252222637625,
                -0.04647001967749495,
                0.03721642752607385,
                0.00681264611006545,
                -0.00415619210979109,
                -0.034482194278737555,
                -0.01306764942551316,
                0.04533786819413334,
                0.05963231095159477,
                0.07822458183669473,
                -0.059707145462124724,
                -0.033141705166807645,
                -0.04635638153982031,
                0.024742527812129777,
                -0.00859265150355275,
                -0.006285020339034206,
                -0.05011688661579564,
                0.022257232613716968,
                -0.03980007126093727,
                0.011304678635352507,
                0.0925535827070388,
                -0.07630635366761238,
                0.0608248006639181,
                -0.028922400367912274,
                -0.019680803916728825,
                0.004054395576158673,
                0.05412162492283507,
                -0.03136919760834255,
                0.029904982796871572,
                0.008941029859697759,
                -0.017634962866226227,
                -0.047602134935419274,
                -0.01648488977103458,
                0.07965837858216884,
                -0.08733707332650036,
                -0.020084011093888236,
                0.03276802897957249,
                -0.024360053694049633,
                0.021257786959244032,
                -0.06952271595600536,
                0.027751502067222173,
                0.03473509424315484,
                0.015335994361191898,
                0.02909720550218607,
                0.0554101393632657,
                -0.05355303519996648,
                0.014983104494200915,
                -0.007064612352510543,
                0.03673280132257919,
                -0.09750890607987901,
                0.025666021872070687,
                -0.03485338430590125,
                -0.004252413419162903,
                0.014811740859933004,
                0.012087706213324778,
                -0.08352963964451449,
                0.06544954583882151,
                0.02141060034358246,
                -0.02681716726051081,
                -0.013843364045449119,
                0.0225683979524946,
                0.028137259892470328,
                -0.007765631538675146,
                -0.023798534174091446,
                0.05487282454829273,
                -0.007039204552103173,
                -0.057753884261054135,
                -0.03730718083299358,
                0.01993749584112549,
                0.005196429823130425,
                -0.05341973584747537,
                0.02581422278791062,
                -0.03846411768470557,
                0.006624087304111917,
                -0.025286796722982285,
                0.0015491722620780799,
                0.04381117221216558,
                -0.053356949043538014,
                -0.006046160584681505,
                -0.0018328850463486574,
                0.09542775121987752,
                -0.06242356331290994,
                -0.04352909238031384,
                0.05087399010604861,
                0.008685330634637637,
                0.10801277909091385,
                0.056752407991800785,
                -0.09727624848137525,
                0.06331103671112587,
                -0.04983087489160025,
                0.027393520359078324,
                0.028866516766110892,
                0.021297718467398145,
                -0.06251791580797693,
                0.030730351862524017,
                0.0007571600264638695,
                0.042662684389807005,
                -0.0802884805884923,
                -0.057442858389752556,
                0.026167819074359274,
                -0.07014769717669028,
                0.038147463604483935,
                0.07300876836790272,
                0.04042968311943914,
                0.0695377714488689,
                -0.03793489818683683,
                -0.10378896198448448,
                -0.029459181333018673,
                -0.014434452962275543,
                -0.061147746867845534,
                0.024592545567952297,
                -0.044499874835592944,
                -0.015087350130525517,
                -0.009222319398745444,
                0.057792871599404674,
                0.05611405843699598,
                -0.026795261131060275,
                -0.054118675617082744,
                0.01332077166583606,
                -0.034675639689037474,
                0.06712573934760184,
                -0.010695762910637828,
                0.012141664345742162,
                0.04700471826261368,
                0.014963337770441844,
                0.003898424513946172,
                -0.08126077297284334,
                0.014793077651586491,
                0.06451146429579967,
                0.014210849070962676,
                0.028613309215661503,
                0.0015626312957857564,
                -0.020589444478466366,
                -0.03094449566572655,
                -0.011881832216566772,
                -0.02716878792500696,
                0.04419943279224288,
                -0.012931573234811288,
                0.04540548766774627,
                0.039581393985743986,
                0.12509286304289527,
                0.022071269496558125,
                -0.007992051554674348,
                -0.040998237616331444,
                -0.037830753230536356,
                0.05645979259342011,
                0.027055296190314226,
                0.009324808593115835,
                0.045378995772772296,
                0.05484857357837071,
                0.023440509404523028,
                0.047556161509184576,
                0.03478523944767967,
                -0.08935401680626118,
                -0.00901025725161991,
                -0.06082594345480692,
                -0.0019107330973553917,
                -0.03927545594305372,
                -0.0045110059604406135,
                -0.04813753266409529,
                -0.022127756346922618,
                -0.010214521109622912,
                -0.03927300335374288,
                -0.042839501528340665,
                0.08172821490129768,
                0.02242599052472239,
                -0.025211609795300155,
                -0.0029033877373794642,
                0.0780562323128727,
                0.020084672174617166,
                0.034828872328880635,
                -0.003732348329950728,
                -0.06529701786680138,
                0.052475634645959876,
                0.010468975655027371,
                -0.0847336876469867,
                -0.03530548374092853,
                -0.01988698915377139,
                0.017595407951030463,
                -0.02491392207060488,
                0.00921388635318054,
                -0.09493187130337073,
                -0.04489807999100654,
                -0.0028216882283008367,
                0.0024731846707498643,
                0.05463687556246039,
                -0.012589916678158805,
                0.05071315620805973,
                -0.0020752384888542722,
                -0.05337801356737956,
                -0.05484698508789183,
                0.04366690130434139,
                0.056812672347375866,
                0.023939891743142153,
                0.003245757254173486,
                -0.014554818184850703,
                0.013096555900461316,
                0.09939348296205482,
                -0.0731560522450879,
                -0.08378987721088592,
                -0.05419268391756191,
                0.025101393636668048,
                -0.0395452134013885,
                -0.018748119488183838,
                -0.014339757401894372,
                0.007608979649503095,
                -0.03578156964194168,
                0.03978462792396085,
                0.03485138578600711,
                0.05752334732501814,
                0.030000232225378388,
                0.08722225682285001,
                0.032024734399585,
                -0.00561636815157573,
                -0.019731964157989366,
                0.1776599806692943,
                -0.06673786902031544,
                0.024155249357095634,
                -0.026014529760433846,
                -0.03349354752750893,
                0.002838813398060484,
                0.035505793151850304,
                0.0016680406599500004,
                0.02263084530024156,
                -0.020853693706553465,
                0.021538039285917403,
                0.012717483935886226,
                -0.043085453684390526,
                -0.020050983581063667,
                -0.04506507631529194,
                0.013547807950663137,
                0.07648327490561571,
                0.008088144044938222,
                0.026138840337329324,
                -0.008956451648276251,
                -0.013788585517579654,
                0.05363763003719648,
                0.028033266735992806,
                -0.018747180815066194,
                0.03776236976846556,
                6.1389106834329e-05,
                0.004305115668257082,
                0.0012086147292181383,
                -0.024465816168517028,
                -0.09424859858379354,
                -0.057595575210497324,
                0.07988975116480564,
                0.01697464234782753,
                -0.044977772249374846,
                0.001192124003067966,
                0.11022233699355709,
                -0.019531308696389686,
                -0.048176096724147646,
                0.10790247746856528,
                -0.042591149035573456,
